digraph Tree {
node [shape=box, style="filled, rounded", color="black", fontname="helvetica"] ;
edge [fontname="helvetica"] ;
0 [label="F <= 0.423\ngini = 0.799\nsamples = 750\nvalue = [148, 142, 142, 161, 157]\nclass = 3", fillcolor="#fefeff"] ;
1 [label="E <= 0.368\ngini = 0.778\nsamples = 488\nvalue = [119, 128, 109, 95, 37]\nclass = 1", fillcolor="#fcfefa"] ;
0 -> 1 [labeldistance=2.5, labelangle=45, headlabel="True"] ;
2 [label="B <= 0.169\ngini = 0.763\nsamples = 364\nvalue = [107.0, 50.0, 102.0, 80.0, 25.0]\nclass = 0", fillcolor="#fffdfb"] ;
1 -> 2 ;
3 [label="A <= -0.102\ngini = 0.697\nsamples = 196\nvalue = [46, 12, 88, 39, 11]\nclass = 2", fillcolor="#c8f8ef"] ;
2 -> 3 ;
4 [label="I <= 1.284\ngini = 0.456\nsamples = 31\nvalue = [9, 0, 1, 21, 0]\nclass = 3", fillcolor="#9593f1"] ;
3 -> 4 ;
5 [label="J <= -0.03\ngini = 0.554\nsamples = 17\nvalue = [8, 0, 1, 8, 0]\nclass = 0", fillcolor="#ffffff"] ;
4 -> 5 ;
6 [label="F <= -0.503\ngini = 0.494\nsamples = 9\nvalue = [6, 0, 1, 2, 0]\nclass = 0", fillcolor="#f0b78e"] ;
5 -> 6 ;
7 [label="gini = 0.625\nsamples = 4\nvalue = [1, 0, 1, 2, 0]\nclass = 3", fillcolor="#bebdf6"] ;
6 -> 7 ;
8 [label="gini = 0.0\nsamples = 5\nvalue = [5, 0, 0, 0, 0]\nclass = 0", fillcolor="#e58139"] ;
6 -> 8 ;
9 [label="F <= -0.45\ngini = 0.375\nsamples = 8\nvalue = [2, 0, 0, 6, 0]\nclass = 3", fillcolor="#7d7bee"] ;
5 -> 9 ;
10 [label="gini = 0.444\nsamples = 3\nvalue = [2, 0, 0, 1, 0]\nclass = 0", fillcolor="#f2c09c"] ;
9 -> 10 ;
11 [label="gini = 0.0\nsamples = 5\nvalue = [0, 0, 0, 5, 0]\nclass = 3", fillcolor="#3c39e5"] ;
9 -> 11 ;
12 [label="E <= 0.0\ngini = 0.133\nsamples = 14\nvalue = [1, 0, 0, 13, 0]\nclass = 3", fillcolor="#4b48e7"] ;
4 -> 12 ;
13 [label="gini = 0.0\nsamples = 13\nvalue = [0, 0, 0, 13, 0]\nclass = 3", fillcolor="#3c39e5"] ;
12 -> 13 ;
14 [label="gini = 0.0\nsamples = 1\nvalue = [1, 0, 0, 0, 0]\nclass = 0", fillcolor="#e58139"] ;
12 -> 14 ;
15 [label="I <= 0.057\ngini = 0.65\nsamples = 165\nvalue = [37.0, 12.0, 87.0, 18.0, 11.0]\nclass = 2", fillcolor="#b2f5e8"] ;
3 -> 15 ;
16 [label="H <= 0.114\ngini = 0.612\nsamples = 43\nvalue = [25.0, 3.0, 5.0, 3.0, 7.0]\nclass = 0", fillcolor="#f2c09c"] ;
15 -> 16 ;
17 [label="E <= -1.552\ngini = 0.691\nsamples = 9\nvalue = [1, 0, 4, 2, 2]\nclass = 2", fillcolor="#c6f8ee"] ;
16 -> 17 ;
18 [label="gini = 0.0\nsamples = 4\nvalue = [0, 0, 4, 0, 0]\nclass = 2", fillcolor="#39e5c5"] ;
17 -> 18 ;
19 [label="gini = 0.64\nsamples = 5\nvalue = [1, 0, 0, 2, 2]\nclass = 3", fillcolor="#ffffff"] ;
17 -> 19 ;
20 [label="B <= -0.41\ngini = 0.471\nsamples = 34\nvalue = [24, 3, 1, 1, 5]\nclass = 0", fillcolor="#eeac7d"] ;
16 -> 20 ;
21 [label="gini = 0.275\nsamples = 26\nvalue = [22, 1, 1, 0, 2]\nclass = 0", fillcolor="#e9965a"] ;
20 -> 21 ;
22 [label="gini = 0.719\nsamples = 8\nvalue = [2, 2, 0, 1, 3]\nclass = 4", fillcolor="#fbdef4"] ;
20 -> 22 ;
23 [label="C <= 0.309\ngini = 0.517\nsamples = 122\nvalue = [12, 9, 82, 15, 4]\nclass = 2", fillcolor="#83efdb"] ;
15 -> 23 ;
24 [label="H <= -1.307\ngini = 0.418\nsamples = 100\nvalue = [5, 8, 75, 10, 2]\nclass = 2", fillcolor="#70ecd5"] ;
23 -> 24 ;
25 [label="gini = 0.562\nsamples = 11\nvalue = [0, 1, 4, 6, 0]\nclass = 3", fillcolor="#c7c6f8"] ;
24 -> 25 ;
26 [label="gini = 0.352\nsamples = 89\nvalue = [5, 7, 71, 4, 2]\nclass = 2", fillcolor="#64ebd2"] ;
24 -> 26 ;
27 [label="A <= 0.007\ngini = 0.736\nsamples = 22\nvalue = [7, 1, 7, 5, 2]\nclass = 0", fillcolor="#ffffff"] ;
23 -> 27 ;
28 [label="gini = 0.0\nsamples = 2\nvalue = [0, 0, 0, 0, 2]\nclass = 4", fillcolor="#e539c0"] ;
27 -> 28 ;
29 [label="gini = 0.69\nsamples = 20\nvalue = [7, 1, 7, 5, 0]\nclass = 0", fillcolor="#ffffff"] ;
27 -> 29 ;
30 [label="F <= -1.192\ngini = 0.744\nsamples = 168\nvalue = [61, 38, 14, 41, 14]\nclass = 0", fillcolor="#fbebe0"] ;
2 -> 30 ;
31 [label="C <= 2.402\ngini = 0.648\nsamples = 115\nvalue = [58, 32, 8, 14, 3]\nclass = 0", fillcolor="#f7d8c1"] ;
30 -> 31 ;
32 [label="H <= -1.151\ngini = 0.608\nsamples = 101\nvalue = [58.0, 21.0, 8.0, 11.0, 3.0]\nclass = 0", fillcolor="#f3c5a3"] ;
31 -> 32 ;
33 [label="B <= 3.284\ngini = 0.219\nsamples = 8\nvalue = [1, 7, 0, 0, 0]\nclass = 1", fillcolor="#8ee955"] ;
32 -> 33 ;
34 [label="gini = 0.0\nsamples = 7\nvalue = [0, 7, 0, 0, 0]\nclass = 1", fillcolor="#7be539"] ;
33 -> 34 ;
35 [label="gini = 0.0\nsamples = 1\nvalue = [1, 0, 0, 0, 0]\nclass = 0", fillcolor="#e58139"] ;
33 -> 35 ;
36 [label="I <= 0.086\ngini = 0.579\nsamples = 93\nvalue = [57, 14, 8, 11, 3]\nclass = 0", fillcolor="#f1ba93"] ;
32 -> 36 ;
37 [label="gini = 0.681\nsamples = 23\nvalue = [7, 10, 0, 4, 2]\nclass = 1", fillcolor="#e6fada"] ;
36 -> 37 ;
38 [label="gini = 0.463\nsamples = 70\nvalue = [50, 4, 8, 7, 1]\nclass = 0", fillcolor="#edaa79"] ;
36 -> 38 ;
39 [label="B <= 1.129\ngini = 0.337\nsamples = 14\nvalue = [0, 11, 0, 3, 0]\nclass = 1", fillcolor="#9fec6f"] ;
31 -> 39 ;
40 [label="A <= -0.894\ngini = 0.375\nsamples = 4\nvalue = [0, 1, 0, 3, 0]\nclass = 3", fillcolor="#7d7bee"] ;
39 -> 40 ;
41 [label="gini = 0.0\nsamples = 1\nvalue = [0, 1, 0, 0, 0]\nclass = 1", fillcolor="#7be539"] ;
40 -> 41 ;
42 [label="gini = 0.0\nsamples = 3\nvalue = [0, 0, 0, 3, 0]\nclass = 3", fillcolor="#3c39e5"] ;
40 -> 42 ;
43 [label="gini = 0.0\nsamples = 10\nvalue = [0, 10, 0, 0, 0]\nclass = 1", fillcolor="#7be539"] ;
39 -> 43 ;
44 [label="A <= 0.616\ngini = 0.669\nsamples = 53\nvalue = [3, 6, 6, 27, 11]\nclass = 3", fillcolor="#b5b4f5"] ;
30 -> 44 ;
45 [label="E <= -0.714\ngini = 0.759\nsamples = 36\nvalue = [3, 5, 6, 11, 11]\nclass = 3", fillcolor="#ffffff"] ;
44 -> 45 ;
46 [label="I <= -0.03\ngini = 0.608\nsamples = 21\nvalue = [3, 0, 0, 10, 8]\nclass = 3", fillcolor="#e1e1fb"] ;
45 -> 46 ;
47 [label="gini = 0.5\nsamples = 16\nvalue = [0, 0, 0, 8, 8]\nclass = 3", fillcolor="#ffffff"] ;
46 -> 47 ;
48 [label="gini = 0.48\nsamples = 5\nvalue = [3, 0, 0, 2, 0]\nclass = 0", fillcolor="#f6d5bd"] ;
46 -> 48 ;
49 [label="A <= -0.891\ngini = 0.684\nsamples = 15\nvalue = [0, 5, 6, 1, 3]\nclass = 2", fillcolor="#ebfcf9"] ;
45 -> 49 ;
50 [label="gini = 0.32\nsamples = 5\nvalue = [0, 0, 4, 1, 0]\nclass = 2", fillcolor="#6aecd4"] ;
49 -> 50 ;
51 [label="gini = 0.62\nsamples = 10\nvalue = [0, 5, 2, 0, 3]\nclass = 1", fillcolor="#d9f8c6"] ;
49 -> 51 ;
52 [label="B <= 0.397\ngini = 0.111\nsamples = 17\nvalue = [0, 1, 0, 16, 0]\nclass = 3", fillcolor="#4845e7"] ;
44 -> 52 ;
53 [label="B <= 0.269\ngini = 0.444\nsamples = 3\nvalue = [0, 1, 0, 2, 0]\nclass = 3", fillcolor="#9e9cf2"] ;
52 -> 53 ;
54 [label="gini = 0.0\nsamples = 2\nvalue = [0, 0, 0, 2, 0]\nclass = 3", fillcolor="#3c39e5"] ;
53 -> 54 ;
55 [label="gini = 0.0\nsamples = 1\nvalue = [0, 1, 0, 0, 0]\nclass = 1", fillcolor="#7be539"] ;
53 -> 55 ;
56 [label="gini = 0.0\nsamples = 14\nvalue = [0, 0, 0, 14, 0]\nclass = 3", fillcolor="#3c39e5"] ;
52 -> 56 ;
57 [label="B <= 0.255\ngini = 0.568\nsamples = 124\nvalue = [12, 78, 7, 15, 12]\nclass = 1", fillcolor="#b3f08d"] ;
1 -> 57 ;
58 [label="I <= 0.826\ngini = 0.68\nsamples = 39\nvalue = [2, 17, 7, 12, 1]\nclass = 1", fillcolor="#e7fada"] ;
57 -> 58 ;
59 [label="D <= -0.15\ngini = 0.541\nsamples = 23\nvalue = [2, 15, 2, 3, 1]\nclass = 1", fillcolor="#b0ef88"] ;
58 -> 59 ;
60 [label="G <= -0.796\ngini = 0.667\nsamples = 3\nvalue = [0, 0, 1, 1, 1]\nclass = 2", fillcolor="#ffffff"] ;
59 -> 60 ;
61 [label="gini = 0.0\nsamples = 1\nvalue = [0, 0, 1, 0, 0]\nclass = 2", fillcolor="#39e5c5"] ;
60 -> 61 ;
62 [label="I <= 0.258\ngini = 0.5\nsamples = 2\nvalue = [0, 0, 0, 1, 1]\nclass = 3", fillcolor="#ffffff"] ;
60 -> 62 ;
63 [label="gini = 0.0\nsamples = 1\nvalue = [0, 0, 0, 0, 1]\nclass = 4", fillcolor="#e539c0"] ;
62 -> 63 ;
64 [label="gini = 0.0\nsamples = 1\nvalue = [0, 0, 0, 1, 0]\nclass = 3", fillcolor="#3c39e5"] ;
62 -> 64 ;
65 [label="C <= -0.914\ngini = 0.415\nsamples = 20\nvalue = [2, 15, 1, 2, 0]\nclass = 1", fillcolor="#a0ec70"] ;
59 -> 65 ;
66 [label="H <= -1.288\ngini = 0.29\nsamples = 18\nvalue = [1, 15, 0, 2, 0]\nclass = 1", fillcolor="#94ea5e"] ;
65 -> 66 ;
67 [label="gini = 0.0\nsamples = 1\nvalue = [1, 0, 0, 0, 0]\nclass = 0", fillcolor="#e58139"] ;
66 -> 67 ;
68 [label="gini = 0.208\nsamples = 17\nvalue = [0, 15, 0, 2, 0]\nclass = 1", fillcolor="#8de853"] ;
66 -> 68 ;
69 [label="D <= 1.047\ngini = 0.5\nsamples = 2\nvalue = [1, 0, 1, 0, 0]\nclass = 0", fillcolor="#ffffff"] ;
65 -> 69 ;
70 [label="gini = 0.0\nsamples = 1\nvalue = [0, 0, 1, 0, 0]\nclass = 2", fillcolor="#39e5c5"] ;
69 -> 70 ;
71 [label="gini = 0.0\nsamples = 1\nvalue = [1, 0, 0, 0, 0]\nclass = 0", fillcolor="#e58139"] ;
69 -> 71 ;
72 [label="C <= -1.948\ngini = 0.57\nsamples = 16\nvalue = [0, 2, 5, 9, 0]\nclass = 3", fillcolor="#b8b7f6"] ;
58 -> 72 ;
73 [label="gini = 0.0\nsamples = 6\nvalue = [0, 0, 0, 6, 0]\nclass = 3", fillcolor="#3c39e5"] ;
72 -> 73 ;
74 [label="F <= -0.191\ngini = 0.62\nsamples = 10\nvalue = [0, 2, 5, 3, 0]\nclass = 2", fillcolor="#c6f8ee"] ;
72 -> 74 ;
75 [label="E <= 0.717\ngini = 0.469\nsamples = 8\nvalue = [0, 0, 5, 3, 0]\nclass = 2", fillcolor="#b0f5e8"] ;
74 -> 75 ;
76 [label="gini = 0.375\nsamples = 4\nvalue = [0, 0, 1, 3, 0]\nclass = 3", fillcolor="#7d7bee"] ;
75 -> 76 ;
77 [label="gini = 0.0\nsamples = 4\nvalue = [0, 0, 4, 0, 0]\nclass = 2", fillcolor="#39e5c5"] ;
75 -> 77 ;
78 [label="gini = 0.0\nsamples = 2\nvalue = [0, 2, 0, 0, 0]\nclass = 1", fillcolor="#7be539"] ;
74 -> 78 ;
79 [label="F <= -3.832\ngini = 0.453\nsamples = 85\nvalue = [10.0, 61.0, 0.0, 3.0, 11.0]\nclass = 1", fillcolor="#a6ed79"] ;
57 -> 79 ;
80 [label="I <= 0.495\ngini = 0.278\nsamples = 6\nvalue = [5, 1, 0, 0, 0]\nclass = 0", fillcolor="#ea9a61"] ;
79 -> 80 ;
81 [label="gini = 0.0\nsamples = 1\nvalue = [0, 1, 0, 0, 0]\nclass = 1", fillcolor="#7be539"] ;
80 -> 81 ;
82 [label="gini = 0.0\nsamples = 5\nvalue = [5, 0, 0, 0, 0]\nclass = 0", fillcolor="#e58139"] ;
80 -> 82 ;
83 [label="E <= 1.409\ngini = 0.398\nsamples = 79\nvalue = [5.0, 60.0, 0.0, 3.0, 11.0]\nclass = 1", fillcolor="#a0ec70"] ;
79 -> 83 ;
84 [label="E <= 1.349\ngini = 0.556\nsamples = 39\nvalue = [3, 24, 0, 3, 9]\nclass = 1", fillcolor="#bdf29c"] ;
83 -> 84 ;
85 [label="G <= 0.418\ngini = 0.514\nsamples = 36\nvalue = [3, 24, 0, 3, 6]\nclass = 1", fillcolor="#b0ef88"] ;
84 -> 85 ;
86 [label="gini = 0.358\nsamples = 24\nvalue = [2, 19, 0, 1, 2]\nclass = 1", fillcolor="#99eb66"] ;
85 -> 86 ;
87 [label="gini = 0.681\nsamples = 12\nvalue = [1, 5, 0, 2, 4]\nclass = 1", fillcolor="#eefce6"] ;
85 -> 87 ;
88 [label="gini = 0.0\nsamples = 3\nvalue = [0, 0, 0, 0, 3]\nclass = 4", fillcolor="#e539c0"] ;
84 -> 88 ;
89 [label="F <= 0.265\ngini = 0.185\nsamples = 40\nvalue = [2, 36, 0, 0, 2]\nclass = 1", fillcolor="#89e84e"] ;
83 -> 89 ;
90 [label="D <= -2.697\ngini = 0.145\nsamples = 39\nvalue = [2, 36, 0, 0, 1]\nclass = 1", fillcolor="#86e749"] ;
89 -> 90 ;
91 [label="gini = 0.0\nsamples = 1\nvalue = [1, 0, 0, 0, 0]\nclass = 0", fillcolor="#e58139"] ;
90 -> 91 ;
92 [label="gini = 0.101\nsamples = 38\nvalue = [1, 36, 0, 0, 1]\nclass = 1", fillcolor="#82e644"] ;
90 -> 92 ;
93 [label="gini = 0.0\nsamples = 1\nvalue = [0, 0, 0, 0, 1]\nclass = 4", fillcolor="#e539c0"] ;
89 -> 93 ;
94 [label="B <= 0.852\ngini = 0.696\nsamples = 262\nvalue = [29, 14, 33, 66, 120]\nclass = 4", fillcolor="#f8c8ee"] ;
0 -> 94 [labeldistance=2.5, labelangle=-45, headlabel="False"] ;
95 [label="I <= -0.175\ngini = 0.683\nsamples = 217\nvalue = [28, 13, 33, 35, 108]\nclass = 4", fillcolor="#f5b0e6"] ;
94 -> 95 ;
96 [label="H <= 0.34\ngini = 0.597\nsamples = 158\nvalue = [27.0, 12.0, 8.0, 17.0, 94.0]\nclass = 4", fillcolor="#f29adf"] ;
95 -> 96 ;
97 [label="E <= 0.802\ngini = 0.467\nsamples = 123\nvalue = [9, 8, 7, 11, 88]\nclass = 4", fillcolor="#ed77d4"] ;
96 -> 97 ;
98 [label="I <= -0.515\ngini = 0.37\nsamples = 111\nvalue = [3.0, 3.0, 7.0, 11.0, 87.0]\nclass = 4", fillcolor="#eb69cf"] ;
97 -> 98 ;
99 [label="I <= -2.68\ngini = 0.322\nsamples = 93\nvalue = [3, 2, 7, 5, 76]\nclass = 4", fillcolor="#ea60cc"] ;
98 -> 99 ;
100 [label="gini = 0.75\nsamples = 4\nvalue = [0, 1, 1, 1, 1]\nclass = 1", fillcolor="#ffffff"] ;
99 -> 100 ;
101 [label="gini = 0.282\nsamples = 89\nvalue = [3, 1, 6, 4, 75]\nclass = 4", fillcolor="#e95acb"] ;
99 -> 101 ;
102 [label="E <= -0.654\ngini = 0.512\nsamples = 18\nvalue = [0, 1, 0, 6, 11]\nclass = 4", fillcolor="#f4ace5"] ;
98 -> 102 ;
103 [label="gini = 0.379\nsamples = 13\nvalue = [0, 1, 0, 2, 10]\nclass = 4", fillcolor="#ec6fd1"] ;
102 -> 103 ;
104 [label="gini = 0.32\nsamples = 5\nvalue = [0, 0, 0, 4, 1]\nclass = 3", fillcolor="#6d6aec"] ;
102 -> 104 ;
105 [label="E <= 2.687\ngini = 0.569\nsamples = 12\nvalue = [6, 5, 0, 0, 1]\nclass = 0", fillcolor="#fbede3"] ;
97 -> 105 ;
106 [label="D <= -0.999\ngini = 0.245\nsamples = 7\nvalue = [6, 0, 0, 0, 1]\nclass = 0", fillcolor="#e9965a"] ;
105 -> 106 ;
107 [label="gini = 0.0\nsamples = 1\nvalue = [0, 0, 0, 0, 1]\nclass = 4", fillcolor="#e539c0"] ;
106 -> 107 ;
108 [label="gini = 0.0\nsamples = 6\nvalue = [6, 0, 0, 0, 0]\nclass = 0", fillcolor="#e58139"] ;
106 -> 108 ;
109 [label="gini = 0.0\nsamples = 5\nvalue = [0, 5, 0, 0, 0]\nclass = 1", fillcolor="#7be539"] ;
105 -> 109 ;
110 [label="C <= -0.731\ngini = 0.663\nsamples = 35\nvalue = [18, 4, 1, 6, 6]\nclass = 0", fillcolor="#f4cbad"] ;
96 -> 110 ;
111 [label="E <= 1.594\ngini = 0.111\nsamples = 17\nvalue = [16, 1, 0, 0, 0]\nclass = 0", fillcolor="#e78945"] ;
110 -> 111 ;
112 [label="gini = 0.0\nsamples = 16\nvalue = [16, 0, 0, 0, 0]\nclass = 0", fillcolor="#e58139"] ;
111 -> 112 ;
113 [label="gini = 0.0\nsamples = 1\nvalue = [0, 1, 0, 0, 0]\nclass = 1", fillcolor="#7be539"] ;
111 -> 113 ;
114 [label="E <= -1.219\ngini = 0.735\nsamples = 18\nvalue = [2, 3, 1, 6, 6]\nclass = 3", fillcolor="#ffffff"] ;
110 -> 114 ;
115 [label="B <= -0.506\ngini = 0.496\nsamples = 11\nvalue = [0, 0, 0, 5, 6]\nclass = 4", fillcolor="#fbdef4"] ;
114 -> 115 ;
116 [label="gini = 0.469\nsamples = 8\nvalue = [0, 0, 0, 5, 3]\nclass = 3", fillcolor="#b1b0f5"] ;
115 -> 116 ;
117 [label="gini = 0.0\nsamples = 3\nvalue = [0, 0, 0, 0, 3]\nclass = 4", fillcolor="#e539c0"] ;
115 -> 117 ;
118 [label="E <= -0.89\ngini = 0.694\nsamples = 7\nvalue = [2, 3, 1, 1, 0]\nclass = 1", fillcolor="#e5fad7"] ;
114 -> 118 ;
119 [label="gini = 0.0\nsamples = 2\nvalue = [2, 0, 0, 0, 0]\nclass = 0", fillcolor="#e58139"] ;
118 -> 119 ;
120 [label="gini = 0.56\nsamples = 5\nvalue = [0, 3, 1, 1, 0]\nclass = 1", fillcolor="#bdf29c"] ;
118 -> 120 ;
121 [label="H <= -0.838\ngini = 0.67\nsamples = 59\nvalue = [1, 1, 25, 18, 14]\nclass = 2", fillcolor="#ddfbf5"] ;
95 -> 121 ;
122 [label="B <= -2.518\ngini = 0.471\nsamples = 32\nvalue = [0, 1, 21, 0, 10]\nclass = 2", fillcolor="#9cf2e2"] ;
121 -> 122 ;
123 [label="gini = 0.0\nsamples = 7\nvalue = [0, 0, 0, 0, 7]\nclass = 4", fillcolor="#e539c0"] ;
122 -> 123 ;
124 [label="J <= -2.29\ngini = 0.278\nsamples = 25\nvalue = [0, 1, 21, 0, 3]\nclass = 2", fillcolor="#5dead0"] ;
122 -> 124 ;
125 [label="gini = 0.0\nsamples = 1\nvalue = [0, 0, 0, 0, 1]\nclass = 4", fillcolor="#e539c0"] ;
124 -> 125 ;
126 [label="H <= -2.372\ngini = 0.226\nsamples = 24\nvalue = [0, 1, 21, 0, 2]\nclass = 2", fillcolor="#54e9cd"] ;
124 -> 126 ;
127 [label="gini = 0.43\nsamples = 11\nvalue = [0, 1, 8, 0, 2]\nclass = 2", fillcolor="#7beed8"] ;
126 -> 127 ;
128 [label="gini = 0.0\nsamples = 13\nvalue = [0, 0, 13, 0, 0]\nclass = 2", fillcolor="#39e5c5"] ;
126 -> 128 ;
129 [label="G <= -0.975\ngini = 0.51\nsamples = 27\nvalue = [1, 0, 4, 18, 4]\nclass = 3", fillcolor="#8886ef"] ;
121 -> 129 ;
130 [label="A <= -0.871\ngini = 0.625\nsamples = 4\nvalue = [1, 0, 2, 0, 1]\nclass = 2", fillcolor="#bdf6ec"] ;
129 -> 130 ;
131 [label="H <= 2.068\ngini = 0.5\nsamples = 2\nvalue = [1, 0, 0, 0, 1]\nclass = 0", fillcolor="#ffffff"] ;
130 -> 131 ;
132 [label="gini = 0.0\nsamples = 1\nvalue = [0, 0, 0, 0, 1]\nclass = 4", fillcolor="#e539c0"] ;
131 -> 132 ;
133 [label="gini = 0.0\nsamples = 1\nvalue = [1, 0, 0, 0, 0]\nclass = 0", fillcolor="#e58139"] ;
131 -> 133 ;
134 [label="gini = 0.0\nsamples = 2\nvalue = [0, 0, 2, 0, 0]\nclass = 2", fillcolor="#39e5c5"] ;
130 -> 134 ;
135 [label="E <= -2.085\ngini = 0.363\nsamples = 23\nvalue = [0, 0, 2, 18, 3]\nclass = 3", fillcolor="#6d6aec"] ;
129 -> 135 ;
136 [label="gini = 0.0\nsamples = 2\nvalue = [0, 0, 0, 0, 2]\nclass = 4", fillcolor="#e539c0"] ;
135 -> 136 ;
137 [label="J <= -1.544\ngini = 0.254\nsamples = 21\nvalue = [0, 0, 2, 18, 1]\nclass = 3", fillcolor="#5b58e9"] ;
135 -> 137 ;
138 [label="gini = 0.0\nsamples = 1\nvalue = [0, 0, 0, 0, 1]\nclass = 4", fillcolor="#e539c0"] ;
137 -> 138 ;
139 [label="gini = 0.18\nsamples = 20\nvalue = [0, 0, 2, 18, 0]\nclass = 3", fillcolor="#524fe8"] ;
137 -> 139 ;
140 [label="A <= -0.667\ngini = 0.453\nsamples = 45\nvalue = [1, 1, 0, 31, 12]\nclass = 3", fillcolor="#8f8df0"] ;
94 -> 140 ;
141 [label="E <= -2.33\ngini = 0.491\nsamples = 17\nvalue = [0, 1, 0, 5, 11]\nclass = 4", fillcolor="#f29ce0"] ;
140 -> 141 ;
142 [label="H <= 0.172\ngini = 0.32\nsamples = 5\nvalue = [0, 0, 0, 4, 1]\nclass = 3", fillcolor="#6d6aec"] ;
141 -> 142 ;
143 [label="gini = 0.0\nsamples = 4\nvalue = [0, 0, 0, 4, 0]\nclass = 3", fillcolor="#3c39e5"] ;
142 -> 143 ;
144 [label="gini = 0.0\nsamples = 1\nvalue = [0, 0, 0, 0, 1]\nclass = 4", fillcolor="#e539c0"] ;
142 -> 144 ;
145 [label="I <= -0.471\ngini = 0.292\nsamples = 12\nvalue = [0, 1, 0, 1, 10]\nclass = 4", fillcolor="#ea5dcb"] ;
141 -> 145 ;
146 [label="gini = 0.0\nsamples = 10\nvalue = [0, 0, 0, 0, 10]\nclass = 4", fillcolor="#e539c0"] ;
145 -> 146 ;
147 [label="J <= 0.582\ngini = 0.5\nsamples = 2\nvalue = [0, 1, 0, 1, 0]\nclass = 1", fillcolor="#ffffff"] ;
145 -> 147 ;
148 [label="gini = 0.0\nsamples = 1\nvalue = [0, 1, 0, 0, 0]\nclass = 1", fillcolor="#7be539"] ;
147 -> 148 ;
149 [label="gini = 0.0\nsamples = 1\nvalue = [0, 0, 0, 1, 0]\nclass = 3", fillcolor="#3c39e5"] ;
147 -> 149 ;
150 [label="H <= -0.66\ngini = 0.135\nsamples = 28\nvalue = [1, 0, 0, 26, 1]\nclass = 3", fillcolor="#4a48e7"] ;
140 -> 150 ;
151 [label="E <= -1.098\ngini = 0.074\nsamples = 26\nvalue = [1, 0, 0, 25, 0]\nclass = 3", fillcolor="#4441e6"] ;
150 -> 151 ;
152 [label="gini = 0.0\nsamples = 22\nvalue = [0, 0, 0, 22, 0]\nclass = 3", fillcolor="#3c39e5"] ;
151 -> 152 ;
153 [label="J <= 0.989\ngini = 0.375\nsamples = 4\nvalue = [1, 0, 0, 3, 0]\nclass = 3", fillcolor="#7d7bee"] ;
151 -> 153 ;
154 [label="gini = 0.0\nsamples = 3\nvalue = [0, 0, 0, 3, 0]\nclass = 3", fillcolor="#3c39e5"] ;
153 -> 154 ;
155 [label="gini = 0.0\nsamples = 1\nvalue = [1, 0, 0, 0, 0]\nclass = 0", fillcolor="#e58139"] ;
153 -> 155 ;
156 [label="C <= 0.392\ngini = 0.5\nsamples = 2\nvalue = [0, 0, 0, 1, 1]\nclass = 3", fillcolor="#ffffff"] ;
150 -> 156 ;
157 [label="gini = 0.0\nsamples = 1\nvalue = [0, 0, 0, 0, 1]\nclass = 4", fillcolor="#e539c0"] ;
156 -> 157 ;
158 [label="gini = 0.0\nsamples = 1\nvalue = [0, 0, 0, 1, 0]\nclass = 3", fillcolor="#3c39e5"] ;
156 -> 158 ;
}