digraph Tree {
node [shape=box, style="filled, rounded", color="black", fontname="helvetica"] ;
edge [fontname="helvetica"] ;
0 [label="aluminium <= -0.219\ngini = 0.198\nsamples = 6396\nvalue = [5684, 712]\nclass = Unsafe", fillcolor="#e89152"] ;
1 [label="aluminium <= -0.409\ngini = 0.083\nsamples = 4931\nvalue = [4718, 213]\nclass = Unsafe", fillcolor="#e68742"] ;
0 -> 1 [labeldistance=2.5, labelangle=45, headlabel="True"] ;
2 [label="viruses <= 0.463\ngini = 0.069\nsamples = 4535\nvalue = [4373, 162]\nclass = Unsafe", fillcolor="#e68640"] ;
1 -> 2 ;
3 [label="nitrites <= -0.51\ngini = 0.103\nsamples = 2493\nvalue = [2357, 136]\nclass = Unsafe", fillcolor="#e78844"] ;
2 -> 3 ;
4 [label="nitrates <= 0.05\ngini = 0.196\nsamples = 825\nvalue = [734, 91]\nclass = Unsafe", fillcolor="#e89152"] ;
3 -> 4 ;
5 [label="bacteria <= -0.925\ngini = 0.332\nsamples = 386\nvalue = [305, 81]\nclass = Unsafe", fillcolor="#eca26e"] ;
4 -> 5 ;
6 [label="lead <= 0.846\ngini = 0.412\nsamples = 258\nvalue = [183, 75]\nclass = Unsafe", fillcolor="#f0b58a"] ;
5 -> 6 ;
7 [label="copper <= 0.723\ngini = 0.462\nsamples = 207\nvalue = [132, 75]\nclass = Unsafe", fillcolor="#f4c9aa"] ;
6 -> 7 ;
8 [label="uranium <= 1.488\ngini = 0.483\nsamples = 184\nvalue = [109, 75]\nclass = Unsafe", fillcolor="#f7d8c1"] ;
7 -> 8 ;
9 [label="barium <= 0.37\ngini = 0.494\nsamples = 168\nvalue = [93, 75]\nclass = Unsafe", fillcolor="#fae7d9"] ;
8 -> 9 ;
10 [label="radium <= 0.777\ngini = 0.499\nsamples = 157\nvalue = [82, 75]\nclass = Unsafe", fillcolor="#fdf4ee"] ;
9 -> 10 ;
11 [label="silver <= -0.715\ngini = 0.5\nsamples = 147\nvalue = [72, 75]\nclass = Safe", fillcolor="#f7fbfe"] ;
10 -> 11 ;
12 [label="lead <= -1.409\ngini = 0.46\nsamples = 67\nvalue = [24, 43]\nclass = Safe", fillcolor="#a8d4f4"] ;
11 -> 12 ;
13 [label="gini = 0.0\nsamples = 11\nvalue = [0, 11]\nclass = Safe", fillcolor="#399de5"] ;
12 -> 13 ;
14 [label="lead <= 0.467\ngini = 0.49\nsamples = 56\nvalue = [24, 32]\nclass = Safe", fillcolor="#cee6f8"] ;
12 -> 14 ;
15 [label="perchlorate <= -0.705\ngini = 0.499\nsamples = 46\nvalue = [24, 22]\nclass = Unsafe", fillcolor="#fdf5ef"] ;
14 -> 15 ;
16 [label="chromium <= -0.727\ngini = 0.475\nsamples = 31\nvalue = [12, 19]\nclass = Safe", fillcolor="#b6dbf5"] ;
15 -> 16 ;
17 [label="gini = 0.26\nsamples = 13\nvalue = [2, 11]\nclass = Safe", fillcolor="#5dafea"] ;
16 -> 17 ;
18 [label="gini = 0.494\nsamples = 18\nvalue = [10, 8]\nclass = Unsafe", fillcolor="#fae6d7"] ;
16 -> 18 ;
19 [label="perchlorate <= -0.441\ngini = 0.32\nsamples = 15\nvalue = [12, 3]\nclass = Unsafe", fillcolor="#eca06a"] ;
15 -> 19 ;
20 [label="gini = 0.0\nsamples = 12\nvalue = [12, 0]\nclass = Unsafe", fillcolor="#e58139"] ;
19 -> 20 ;
21 [label="gini = 0.0\nsamples = 3\nvalue = [0, 3]\nclass = Safe", fillcolor="#399de5"] ;
19 -> 21 ;
22 [label="gini = 0.0\nsamples = 10\nvalue = [0, 10]\nclass = Safe", fillcolor="#399de5"] ;
14 -> 22 ;
23 [label="copper <= -1.117\ngini = 0.48\nsamples = 80\nvalue = [48, 32]\nclass = Unsafe", fillcolor="#f6d5bd"] ;
11 -> 23 ;
24 [label="radium <= -1.161\ngini = 0.397\nsamples = 44\nvalue = [32, 12]\nclass = Unsafe", fillcolor="#efb083"] ;
23 -> 24 ;
25 [label="barium <= -1.209\ngini = 0.278\nsamples = 6\nvalue = [1, 5]\nclass = Safe", fillcolor="#61b1ea"] ;
24 -> 25 ;
26 [label="gini = 0.0\nsamples = 1\nvalue = [1, 0]\nclass = Unsafe", fillcolor="#e58139"] ;
25 -> 26 ;
27 [label="gini = 0.0\nsamples = 5\nvalue = [0, 5]\nclass = Safe", fillcolor="#399de5"] ;
25 -> 27 ;
28 [label="radium <= 0.235\ngini = 0.301\nsamples = 38\nvalue = [31, 7]\nclass = Unsafe", fillcolor="#eb9d66"] ;
24 -> 28 ;
29 [label="flouride <= 1.488\ngini = 0.245\nsamples = 35\nvalue = [30, 5]\nclass = Unsafe", fillcolor="#e9965a"] ;
28 -> 29 ;
30 [label="gini = 0.208\nsamples = 34\nvalue = [30, 4]\nclass = Unsafe", fillcolor="#e89253"] ;
29 -> 30 ;
31 [label="gini = 0.0\nsamples = 1\nvalue = [0, 1]\nclass = Safe", fillcolor="#399de5"] ;
29 -> 31 ;
32 [label="nitrites <= -0.858\ngini = 0.444\nsamples = 3\nvalue = [1, 2]\nclass = Safe", fillcolor="#9ccef2"] ;
28 -> 32 ;
33 [label="gini = 0.0\nsamples = 1\nvalue = [1, 0]\nclass = Unsafe", fillcolor="#e58139"] ;
32 -> 33 ;
34 [label="gini = 0.0\nsamples = 2\nvalue = [0, 2]\nclass = Safe", fillcolor="#399de5"] ;
32 -> 34 ;
35 [label="perchlorate <= -0.518\ngini = 0.494\nsamples = 36\nvalue = [16, 20]\nclass = Safe", fillcolor="#d7ebfa"] ;
23 -> 35 ;
36 [label="cadmium <= -0.488\ngini = 0.498\nsamples = 30\nvalue = [16, 14]\nclass = Unsafe", fillcolor="#fcefe6"] ;
35 -> 36 ;
37 [label="silver <= -0.645\ngini = 0.278\nsamples = 6\nvalue = [1, 5]\nclass = Safe", fillcolor="#61b1ea"] ;
36 -> 37 ;
38 [label="gini = 0.0\nsamples = 1\nvalue = [1, 0]\nclass = Unsafe", fillcolor="#e58139"] ;
37 -> 38 ;
39 [label="gini = 0.0\nsamples = 5\nvalue = [0, 5]\nclass = Safe", fillcolor="#399de5"] ;
37 -> 39 ;
40 [label="uranium <= 0.006\ngini = 0.469\nsamples = 24\nvalue = [15, 9]\nclass = Unsafe", fillcolor="#f5cdb0"] ;
36 -> 40 ;
41 [label="gini = 0.492\nsamples = 16\nvalue = [7, 9]\nclass = Safe", fillcolor="#d3e9f9"] ;
40 -> 41 ;
42 [label="gini = 0.0\nsamples = 8\nvalue = [8, 0]\nclass = Unsafe", fillcolor="#e58139"] ;
40 -> 42 ;
43 [label="gini = 0.0\nsamples = 6\nvalue = [0, 6]\nclass = Safe", fillcolor="#399de5"] ;
35 -> 43 ;
44 [label="gini = 0.0\nsamples = 10\nvalue = [10, 0]\nclass = Unsafe", fillcolor="#e58139"] ;
10 -> 44 ;
45 [label="gini = 0.0\nsamples = 11\nvalue = [11, 0]\nclass = Unsafe", fillcolor="#e58139"] ;
9 -> 45 ;
46 [label="gini = 0.0\nsamples = 16\nvalue = [16, 0]\nclass = Unsafe", fillcolor="#e58139"] ;
8 -> 46 ;
47 [label="gini = 0.0\nsamples = 23\nvalue = [23, 0]\nclass = Unsafe", fillcolor="#e58139"] ;
7 -> 47 ;
48 [label="gini = 0.0\nsamples = 51\nvalue = [51, 0]\nclass = Unsafe", fillcolor="#e58139"] ;
6 -> 48 ;
49 [label="nitrates <= 0.013\ngini = 0.089\nsamples = 128\nvalue = [122, 6]\nclass = Unsafe", fillcolor="#e68743"] ;
5 -> 49 ;
50 [label="perchlorate <= -0.927\ngini = 0.062\nsamples = 125\nvalue = [121, 4]\nclass = Unsafe", fillcolor="#e68540"] ;
49 -> 50 ;
51 [label="gini = 0.0\nsamples = 1\nvalue = [0, 1]\nclass = Safe", fillcolor="#399de5"] ;
50 -> 51 ;
52 [label="copper <= -1.225\ngini = 0.047\nsamples = 124\nvalue = [121, 3]\nclass = Unsafe", fillcolor="#e6843e"] ;
50 -> 52 ;
53 [label="radium <= -0.188\ngini = 0.5\nsamples = 2\nvalue = [1, 1]\nclass = Unsafe", fillcolor="#ffffff"] ;
52 -> 53 ;
54 [label="gini = 0.0\nsamples = 1\nvalue = [1, 0]\nclass = Unsafe", fillcolor="#e58139"] ;
53 -> 54 ;
55 [label="gini = 0.0\nsamples = 1\nvalue = [0, 1]\nclass = Safe", fillcolor="#399de5"] ;
53 -> 55 ;
56 [label="radium <= -1.139\ngini = 0.032\nsamples = 122\nvalue = [120, 2]\nclass = Unsafe", fillcolor="#e5833c"] ;
52 -> 56 ;
57 [label="bacteria <= -0.834\ngini = 0.198\nsamples = 18\nvalue = [16, 2]\nclass = Unsafe", fillcolor="#e89152"] ;
56 -> 57 ;
58 [label="copper <= -1.086\ngini = 0.444\nsamples = 3\nvalue = [1, 2]\nclass = Safe", fillcolor="#9ccef2"] ;
57 -> 58 ;
59 [label="gini = 0.0\nsamples = 2\nvalue = [0, 2]\nclass = Safe", fillcolor="#399de5"] ;
58 -> 59 ;
60 [label="gini = 0.0\nsamples = 1\nvalue = [1, 0]\nclass = Unsafe", fillcolor="#e58139"] ;
58 -> 60 ;
61 [label="gini = 0.0\nsamples = 15\nvalue = [15, 0]\nclass = Unsafe", fillcolor="#e58139"] ;
57 -> 61 ;
62 [label="gini = 0.0\nsamples = 104\nvalue = [104, 0]\nclass = Unsafe", fillcolor="#e58139"] ;
56 -> 62 ;
63 [label="radium <= -1.083\ngini = 0.444\nsamples = 3\nvalue = [1, 2]\nclass = Safe", fillcolor="#9ccef2"] ;
49 -> 63 ;
64 [label="gini = 0.0\nsamples = 2\nvalue = [0, 2]\nclass = Safe", fillcolor="#399de5"] ;
63 -> 64 ;
65 [label="gini = 0.0\nsamples = 1\nvalue = [1, 0]\nclass = Unsafe", fillcolor="#e58139"] ;
63 -> 65 ;
66 [label="nitrites <= -0.58\ngini = 0.045\nsamples = 439\nvalue = [429, 10]\nclass = Unsafe", fillcolor="#e6843e"] ;
4 -> 66 ;
67 [label="ammonia <= -1.603\ngini = 0.005\nsamples = 408\nvalue = [407, 1]\nclass = Unsafe", fillcolor="#e58139"] ;
66 -> 67 ;
68 [label="gini = 0.0\nsamples = 1\nvalue = [0, 1]\nclass = Safe", fillcolor="#399de5"] ;
67 -> 68 ;
69 [label="gini = 0.0\nsamples = 407\nvalue = [407, 0]\nclass = Unsafe", fillcolor="#e58139"] ;
67 -> 69 ;
70 [label="mercury <= -0.391\ngini = 0.412\nsamples = 31\nvalue = [22, 9]\nclass = Unsafe", fillcolor="#f0b58a"] ;
66 -> 70 ;
71 [label="uranium <= 0.006\ngini = 0.346\nsamples = 9\nvalue = [2, 7]\nclass = Safe", fillcolor="#72b9ec"] ;
70 -> 71 ;
72 [label="barium <= -0.652\ngini = 0.444\nsamples = 3\nvalue = [2, 1]\nclass = Unsafe", fillcolor="#f2c09c"] ;
71 -> 72 ;
73 [label="gini = 0.0\nsamples = 2\nvalue = [2, 0]\nclass = Unsafe", fillcolor="#e58139"] ;
72 -> 73 ;
74 [label="gini = 0.0\nsamples = 1\nvalue = [0, 1]\nclass = Safe", fillcolor="#399de5"] ;
72 -> 74 ;
75 [label="gini = 0.0\nsamples = 6\nvalue = [0, 6]\nclass = Safe", fillcolor="#399de5"] ;
71 -> 75 ;
76 [label="arsenic <= -0.617\ngini = 0.165\nsamples = 22\nvalue = [20, 2]\nclass = Unsafe", fillcolor="#e88e4d"] ;
70 -> 76 ;
77 [label="gini = 0.0\nsamples = 1\nvalue = [0, 1]\nclass = Safe", fillcolor="#399de5"] ;
76 -> 77 ;
78 [label="chloramine <= -0.83\ngini = 0.091\nsamples = 21\nvalue = [20, 1]\nclass = Unsafe", fillcolor="#e68743"] ;
76 -> 78 ;
79 [label="nitrates <= 0.619\ngini = 0.5\nsamples = 2\nvalue = [1, 1]\nclass = Unsafe", fillcolor="#ffffff"] ;
78 -> 79 ;
80 [label="gini = 0.0\nsamples = 1\nvalue = [1, 0]\nclass = Unsafe", fillcolor="#e58139"] ;
79 -> 80 ;
81 [label="gini = 0.0\nsamples = 1\nvalue = [0, 1]\nclass = Safe", fillcolor="#399de5"] ;
79 -> 81 ;
82 [label="gini = 0.0\nsamples = 19\nvalue = [19, 0]\nclass = Unsafe", fillcolor="#e58139"] ;
78 -> 82 ;
83 [label="perchlorate <= -0.179\ngini = 0.053\nsamples = 1668\nvalue = [1623, 45]\nclass = Unsafe", fillcolor="#e6843e"] ;
3 -> 83 ;
84 [label="chromium <= 2.338\ngini = 0.007\nsamples = 1130\nvalue = [1126, 4]\nclass = Unsafe", fillcolor="#e5813a"] ;
83 -> 84 ;
85 [label="aluminium <= -0.424\ngini = 0.005\nsamples = 1128\nvalue = [1125, 3]\nclass = Unsafe", fillcolor="#e5813a"] ;
84 -> 85 ;
86 [label="lead <= -1.693\ngini = 0.004\nsamples = 1123\nvalue = [1121, 2]\nclass = Unsafe", fillcolor="#e58139"] ;
85 -> 86 ;
87 [label="viruses <= -0.2\ngini = 0.111\nsamples = 17\nvalue = [16, 1]\nclass = Unsafe", fillcolor="#e78945"] ;
86 -> 87 ;
88 [label="gini = 0.0\nsamples = 16\nvalue = [16, 0]\nclass = Unsafe", fillcolor="#e58139"] ;
87 -> 88 ;
89 [label="gini = 0.0\nsamples = 1\nvalue = [0, 1]\nclass = Safe", fillcolor="#399de5"] ;
87 -> 89 ;
90 [label="silver <= 1.517\ngini = 0.002\nsamples = 1106\nvalue = [1105, 1]\nclass = Unsafe", fillcolor="#e58139"] ;
86 -> 90 ;
91 [label="gini = 0.0\nsamples = 1077\nvalue = [1077, 0]\nclass = Unsafe", fillcolor="#e58139"] ;
90 -> 91 ;
92 [label="bacteria <= -0.955\ngini = 0.067\nsamples = 29\nvalue = [28, 1]\nclass = Unsafe", fillcolor="#e68640"] ;
90 -> 92 ;
93 [label="gini = 0.0\nsamples = 1\nvalue = [0, 1]\nclass = Safe", fillcolor="#399de5"] ;
92 -> 93 ;
94 [label="gini = 0.0\nsamples = 28\nvalue = [28, 0]\nclass = Unsafe", fillcolor="#e58139"] ;
92 -> 94 ;
95 [label="nitrates <= 0.942\ngini = 0.32\nsamples = 5\nvalue = [4, 1]\nclass = Unsafe", fillcolor="#eca06a"] ;
85 -> 95 ;
96 [label="gini = 0.0\nsamples = 4\nvalue = [4, 0]\nclass = Unsafe", fillcolor="#e58139"] ;
95 -> 96 ;
97 [label="gini = 0.0\nsamples = 1\nvalue = [0, 1]\nclass = Safe", fillcolor="#399de5"] ;
95 -> 97 ;
98 [label="bacteria <= 0.184\ngini = 0.5\nsamples = 2\nvalue = [1, 1]\nclass = Unsafe", fillcolor="#ffffff"] ;
84 -> 98 ;
99 [label="gini = 0.0\nsamples = 1\nvalue = [0, 1]\nclass = Safe", fillcolor="#399de5"] ;
98 -> 99 ;
100 [label="gini = 0.0\nsamples = 1\nvalue = [1, 0]\nclass = Unsafe", fillcolor="#e58139"] ;
98 -> 100 ;
101 [label="silver <= -0.297\ngini = 0.141\nsamples = 538\nvalue = [497, 41]\nclass = Unsafe", fillcolor="#e78b49"] ;
83 -> 101 ;
102 [label="uranium <= -0.365\ngini = 0.391\nsamples = 135\nvalue = [99, 36]\nclass = Unsafe", fillcolor="#eeaf81"] ;
101 -> 102 ;
103 [label="radium <= 0.896\ngini = 0.471\nsamples = 58\nvalue = [22, 36]\nclass = Safe", fillcolor="#b2d9f5"] ;
102 -> 103 ;
104 [label="selenium <= 1.052\ngini = 0.375\nsamples = 48\nvalue = [12, 36]\nclass = Safe", fillcolor="#7bbeee"] ;
103 -> 104 ;
105 [label="perchlorate <= 2.187\ngini = 0.1\nsamples = 38\nvalue = [2, 36]\nclass = Safe", fillcolor="#44a2e6"] ;
104 -> 105 ;
106 [label="gini = 0.0\nsamples = 36\nvalue = [0, 36]\nclass = Safe", fillcolor="#399de5"] ;
105 -> 106 ;
107 [label="gini = 0.0\nsamples = 2\nvalue = [2, 0]\nclass = Unsafe", fillcolor="#e58139"] ;
105 -> 107 ;
108 [label="gini = 0.0\nsamples = 10\nvalue = [10, 0]\nclass = Unsafe", fillcolor="#e58139"] ;
104 -> 108 ;
109 [label="gini = 0.0\nsamples = 10\nvalue = [10, 0]\nclass = Unsafe", fillcolor="#e58139"] ;
103 -> 109 ;
110 [label="gini = 0.0\nsamples = 77\nvalue = [77, 0]\nclass = Unsafe", fillcolor="#e58139"] ;
102 -> 110 ;
111 [label="bacteria <= -0.955\ngini = 0.025\nsamples = 403\nvalue = [398, 5]\nclass = Unsafe", fillcolor="#e5833b"] ;
101 -> 111 ;
112 [label="perchlorate <= 0.322\ngini = 0.444\nsamples = 12\nvalue = [8, 4]\nclass = Unsafe", fillcolor="#f2c09c"] ;
111 -> 112 ;
113 [label="gini = 0.0\nsamples = 3\nvalue = [0, 3]\nclass = Safe", fillcolor="#399de5"] ;
112 -> 113 ;
114 [label="lead <= 1.122\ngini = 0.198\nsamples = 9\nvalue = [8, 1]\nclass = Unsafe", fillcolor="#e89152"] ;
112 -> 114 ;
115 [label="gini = 0.0\nsamples = 8\nvalue = [8, 0]\nclass = Unsafe", fillcolor="#e58139"] ;
114 -> 115 ;
116 [label="gini = 0.0\nsamples = 1\nvalue = [0, 1]\nclass = Safe", fillcolor="#399de5"] ;
114 -> 116 ;
117 [label="aluminium <= -0.519\ngini = 0.005\nsamples = 391\nvalue = [390, 1]\nclass = Unsafe", fillcolor="#e5813a"] ;
111 -> 117 ;
118 [label="copper <= 1.582\ngini = 0.105\nsamples = 18\nvalue = [17, 1]\nclass = Unsafe", fillcolor="#e78845"] ;
117 -> 118 ;
119 [label="gini = 0.0\nsamples = 17\nvalue = [17, 0]\nclass = Unsafe", fillcolor="#e58139"] ;
118 -> 119 ;
120 [label="gini = 0.0\nsamples = 1\nvalue = [0, 1]\nclass = Safe", fillcolor="#399de5"] ;
118 -> 120 ;
121 [label="gini = 0.0\nsamples = 373\nvalue = [373, 0]\nclass = Unsafe", fillcolor="#e58139"] ;
117 -> 121 ;
122 [label="nitrates <= 1.798\ngini = 0.025\nsamples = 2042\nvalue = [2016, 26]\nclass = Unsafe", fillcolor="#e5833c"] ;
2 -> 122 ;
123 [label="chloramine <= -0.417\ngini = 0.024\nsamples = 2041\nvalue = [2016, 25]\nclass = Unsafe", fillcolor="#e5833b"] ;
122 -> 123 ;
124 [label="aluminium <= -0.44\ngini = 0.001\nsamples = 1475\nvalue = [1474, 1]\nclass = Unsafe", fillcolor="#e58139"] ;
123 -> 124 ;
125 [label="gini = 0.0\nsamples = 1470\nvalue = [1470, 0]\nclass = Unsafe", fillcolor="#e58139"] ;
124 -> 125 ;
126 [label="silver <= -0.332\ngini = 0.32\nsamples = 5\nvalue = [4, 1]\nclass = Unsafe", fillcolor="#eca06a"] ;
124 -> 126 ;
127 [label="gini = 0.0\nsamples = 1\nvalue = [0, 1]\nclass = Safe", fillcolor="#399de5"] ;
126 -> 127 ;
128 [label="gini = 0.0\nsamples = 4\nvalue = [4, 0]\nclass = Unsafe", fillcolor="#e58139"] ;
126 -> 128 ;
129 [label="silver <= -0.297\ngini = 0.081\nsamples = 566\nvalue = [542, 24]\nclass = Unsafe", fillcolor="#e68742"] ;
123 -> 129 ;
130 [label="uranium <= -0.365\ngini = 0.324\nsamples = 108\nvalue = [86, 22]\nclass = Unsafe", fillcolor="#eca16c"] ;
129 -> 130 ;
131 [label="radium <= 0.915\ngini = 0.5\nsamples = 39\nvalue = [20, 19]\nclass = Unsafe", fillcolor="#fef9f5"] ;
130 -> 131 ;
132 [label="selenium <= 1.226\ngini = 0.393\nsamples = 26\nvalue = [7, 19]\nclass = Safe", fillcolor="#82c1ef"] ;
131 -> 132 ;
133 [label="perchlorate <= 2.255\ngini = 0.236\nsamples = 22\nvalue = [3, 19]\nclass = Safe", fillcolor="#58ace9"] ;
132 -> 133 ;
134 [label="gini = 0.0\nsamples = 19\nvalue = [0, 19]\nclass = Safe", fillcolor="#399de5"] ;
133 -> 134 ;
135 [label="gini = 0.0\nsamples = 3\nvalue = [3, 0]\nclass = Unsafe", fillcolor="#e58139"] ;
133 -> 135 ;
136 [label="gini = 0.0\nsamples = 4\nvalue = [4, 0]\nclass = Unsafe", fillcolor="#e58139"] ;
132 -> 136 ;
137 [label="gini = 0.0\nsamples = 13\nvalue = [13, 0]\nclass = Unsafe", fillcolor="#e58139"] ;
131 -> 137 ;
138 [label="selenium <= 1.573\ngini = 0.083\nsamples = 69\nvalue = [66, 3]\nclass = Unsafe", fillcolor="#e68742"] ;
130 -> 138 ;
139 [label="perchlorate <= -0.408\ngini = 0.058\nsamples = 67\nvalue = [65, 2]\nclass = Unsafe", fillcolor="#e6853f"] ;
138 -> 139 ;
140 [label="flouride <= 1.12\ngini = 0.278\nsamples = 12\nvalue = [10, 2]\nclass = Unsafe", fillcolor="#ea9a61"] ;
139 -> 140 ;
141 [label="perchlorate <= -0.514\ngini = 0.165\nsamples = 11\nvalue = [10, 1]\nclass = Unsafe", fillcolor="#e88e4d"] ;
140 -> 141 ;
142 [label="gini = 0.0\nsamples = 9\nvalue = [9, 0]\nclass = Unsafe", fillcolor="#e58139"] ;
141 -> 142 ;
143 [label="aluminium <= -0.432\ngini = 0.5\nsamples = 2\nvalue = [1, 1]\nclass = Unsafe", fillcolor="#ffffff"] ;
141 -> 143 ;
144 [label="gini = 0.0\nsamples = 1\nvalue = [0, 1]\nclass = Safe", fillcolor="#399de5"] ;
143 -> 144 ;
145 [label="gini = 0.0\nsamples = 1\nvalue = [1, 0]\nclass = Unsafe", fillcolor="#e58139"] ;
143 -> 145 ;
146 [label="gini = 0.0\nsamples = 1\nvalue = [0, 1]\nclass = Safe", fillcolor="#399de5"] ;
140 -> 146 ;
147 [label="gini = 0.0\nsamples = 55\nvalue = [55, 0]\nclass = Unsafe", fillcolor="#e58139"] ;
139 -> 147 ;
148 [label="perchlorate <= 1.294\ngini = 0.5\nsamples = 2\nvalue = [1, 1]\nclass = Unsafe", fillcolor="#ffffff"] ;
138 -> 148 ;
149 [label="gini = 0.0\nsamples = 1\nvalue = [1, 0]\nclass = Unsafe", fillcolor="#e58139"] ;
148 -> 149 ;
150 [label="gini = 0.0\nsamples = 1\nvalue = [0, 1]\nclass = Safe", fillcolor="#399de5"] ;
148 -> 150 ;
151 [label="aluminium <= -0.416\ngini = 0.009\nsamples = 458\nvalue = [456, 2]\nclass = Unsafe", fillcolor="#e5823a"] ;
129 -> 151 ;
152 [label="cadmium <= -1.141\ngini = 0.005\nsamples = 442\nvalue = [441, 1]\nclass = Unsafe", fillcolor="#e58139"] ;
151 -> 152 ;
153 [label="barium <= 1.673\ngini = 0.056\nsamples = 35\nvalue = [34, 1]\nclass = Unsafe", fillcolor="#e6853f"] ;
152 -> 153 ;
154 [label="gini = 0.0\nsamples = 32\nvalue = [32, 0]\nclass = Unsafe", fillcolor="#e58139"] ;
153 -> 154 ;
155 [label="aluminium <= -0.464\ngini = 0.444\nsamples = 3\nvalue = [2, 1]\nclass = Unsafe", fillcolor="#f2c09c"] ;
153 -> 155 ;
156 [label="gini = 0.0\nsamples = 2\nvalue = [2, 0]\nclass = Unsafe", fillcolor="#e58139"] ;
155 -> 156 ;
157 [label="gini = 0.0\nsamples = 1\nvalue = [0, 1]\nclass = Safe", fillcolor="#399de5"] ;
155 -> 157 ;
158 [label="gini = 0.0\nsamples = 407\nvalue = [407, 0]\nclass = Unsafe", fillcolor="#e58139"] ;
152 -> 158 ;
159 [label="ammonia <= -1.264\ngini = 0.117\nsamples = 16\nvalue = [15, 1]\nclass = Unsafe", fillcolor="#e78946"] ;
151 -> 159 ;
160 [label="gini = 0.0\nsamples = 1\nvalue = [0, 1]\nclass = Safe", fillcolor="#399de5"] ;
159 -> 160 ;
161 [label="gini = 0.0\nsamples = 15\nvalue = [15, 0]\nclass = Unsafe", fillcolor="#e58139"] ;
159 -> 161 ;
162 [label="gini = 0.0\nsamples = 1\nvalue = [0, 1]\nclass = Safe", fillcolor="#399de5"] ;
122 -> 162 ;
163 [label="silver <= -0.506\ngini = 0.224\nsamples = 396\nvalue = [345, 51]\nclass = Unsafe", fillcolor="#e99456"] ;
1 -> 163 ;
164 [label="uranium <= -0.365\ngini = 0.467\nsamples = 62\nvalue = [39, 23]\nclass = Unsafe", fillcolor="#f4cbae"] ;
163 -> 164 ;
165 [label="perchlorate <= 1.714\ngini = 0.384\nsamples = 27\nvalue = [7, 20]\nclass = Safe", fillcolor="#7ebfee"] ;
164 -> 165 ;
166 [label="radium <= 1.623\ngini = 0.278\nsamples = 24\nvalue = [4, 20]\nclass = Safe", fillcolor="#61b1ea"] ;
165 -> 166 ;
167 [label="nitrates <= 1.61\ngini = 0.091\nsamples = 21\nvalue = [1, 20]\nclass = Safe", fillcolor="#43a2e6"] ;
166 -> 167 ;
168 [label="gini = 0.0\nsamples = 20\nvalue = [0, 20]\nclass = Safe", fillcolor="#399de5"] ;
167 -> 168 ;
169 [label="gini = 0.0\nsamples = 1\nvalue = [1, 0]\nclass = Unsafe", fillcolor="#e58139"] ;
167 -> 169 ;
170 [label="gini = 0.0\nsamples = 3\nvalue = [3, 0]\nclass = Unsafe", fillcolor="#e58139"] ;
166 -> 170 ;
171 [label="gini = 0.0\nsamples = 3\nvalue = [3, 0]\nclass = Unsafe", fillcolor="#e58139"] ;
165 -> 171 ;
172 [label="ammonia <= 1.69\ngini = 0.157\nsamples = 35\nvalue = [32, 3]\nclass = Unsafe", fillcolor="#e78d4c"] ;
164 -> 172 ;
173 [label="radium <= -1.202\ngini = 0.111\nsamples = 34\nvalue = [32, 2]\nclass = Unsafe", fillcolor="#e78945"] ;
172 -> 173 ;
174 [label="nitrates <= 0.836\ngini = 0.5\nsamples = 2\nvalue = [1, 1]\nclass = Unsafe", fillcolor="#ffffff"] ;
173 -> 174 ;
175 [label="gini = 0.0\nsamples = 1\nvalue = [0, 1]\nclass = Safe", fillcolor="#399de5"] ;
174 -> 175 ;
176 [label="gini = 0.0\nsamples = 1\nvalue = [1, 0]\nclass = Unsafe", fillcolor="#e58139"] ;
174 -> 176 ;
177 [label="bacteria <= -0.895\ngini = 0.061\nsamples = 32\nvalue = [31, 1]\nclass = Unsafe", fillcolor="#e6853f"] ;
173 -> 177 ;
178 [label="nitrites <= 0.765\ngini = 0.444\nsamples = 3\nvalue = [2, 1]\nclass = Unsafe", fillcolor="#f2c09c"] ;
177 -> 178 ;
179 [label="gini = 0.0\nsamples = 2\nvalue = [2, 0]\nclass = Unsafe", fillcolor="#e58139"] ;
178 -> 179 ;
180 [label="gini = 0.0\nsamples = 1\nvalue = [0, 1]\nclass = Safe", fillcolor="#399de5"] ;
178 -> 180 ;
181 [label="gini = 0.0\nsamples = 29\nvalue = [29, 0]\nclass = Unsafe", fillcolor="#e58139"] ;
177 -> 181 ;
182 [label="gini = 0.0\nsamples = 1\nvalue = [0, 1]\nclass = Safe", fillcolor="#399de5"] ;
172 -> 182 ;
183 [label="cadmium <= -0.946\ngini = 0.154\nsamples = 334\nvalue = [306, 28]\nclass = Unsafe", fillcolor="#e78d4b"] ;
163 -> 183 ;
184 [label="bacteria <= -0.955\ngini = 0.283\nsamples = 164\nvalue = [136.0, 28.0]\nclass = Unsafe", fillcolor="#ea9b62"] ;
183 -> 184 ;
185 [label="perchlorate <= 0.659\ngini = 0.408\nsamples = 14\nvalue = [4, 10]\nclass = Safe", fillcolor="#88c4ef"] ;
184 -> 185 ;
186 [label="gini = 0.0\nsamples = 8\nvalue = [0, 8]\nclass = Safe", fillcolor="#399de5"] ;
185 -> 186 ;
187 [label="chromium <= 2.207\ngini = 0.444\nsamples = 6\nvalue = [4, 2]\nclass = Unsafe", fillcolor="#f2c09c"] ;
185 -> 187 ;
188 [label="gini = 0.0\nsamples = 4\nvalue = [4, 0]\nclass = Unsafe", fillcolor="#e58139"] ;
187 -> 188 ;
189 [label="gini = 0.0\nsamples = 2\nvalue = [0, 2]\nclass = Safe", fillcolor="#399de5"] ;
187 -> 189 ;
190 [label="nitrates <= -1.511\ngini = 0.211\nsamples = 150\nvalue = [132, 18]\nclass = Unsafe", fillcolor="#e99254"] ;
184 -> 190 ;
191 [label="ammonia <= 0.374\ngini = 0.49\nsamples = 7\nvalue = [3, 4]\nclass = Safe", fillcolor="#cee6f8"] ;
190 -> 191 ;
192 [label="gini = 0.0\nsamples = 4\nvalue = [0, 4]\nclass = Safe", fillcolor="#399de5"] ;
191 -> 192 ;
193 [label="gini = 0.0\nsamples = 3\nvalue = [3, 0]\nclass = Unsafe", fillcolor="#e58139"] ;
191 -> 193 ;
194 [label="radium <= -1.168\ngini = 0.177\nsamples = 143\nvalue = [129, 14]\nclass = Unsafe", fillcolor="#e88f4e"] ;
190 -> 194 ;
195 [label="flouride <= -0.551\ngini = 0.48\nsamples = 5\nvalue = [2, 3]\nclass = Safe", fillcolor="#bddef6"] ;
194 -> 195 ;
196 [label="aluminium <= -0.393\ngini = 0.444\nsamples = 3\nvalue = [2, 1]\nclass = Unsafe", fillcolor="#f2c09c"] ;
195 -> 196 ;
197 [label="gini = 0.0\nsamples = 1\nvalue = [0, 1]\nclass = Safe", fillcolor="#399de5"] ;
196 -> 197 ;
198 [label="gini = 0.0\nsamples = 2\nvalue = [2, 0]\nclass = Unsafe", fillcolor="#e58139"] ;
196 -> 198 ;
199 [label="gini = 0.0\nsamples = 2\nvalue = [0, 2]\nclass = Safe", fillcolor="#399de5"] ;
195 -> 199 ;
200 [label="copper <= 0.9\ngini = 0.147\nsamples = 138\nvalue = [127.0, 11.0]\nclass = Unsafe", fillcolor="#e78c4a"] ;
194 -> 200 ;
201 [label="nitrites <= -0.545\ngini = 0.083\nsamples = 92\nvalue = [88, 4]\nclass = Unsafe", fillcolor="#e68742"] ;
200 -> 201 ;
202 [label="gini = 0.0\nsamples = 1\nvalue = [0, 1]\nclass = Safe", fillcolor="#399de5"] ;
201 -> 202 ;
203 [label="nitrites <= 1.147\ngini = 0.064\nsamples = 91\nvalue = [88, 3]\nclass = Unsafe", fillcolor="#e68540"] ;
201 -> 203 ;
204 [label="ammonia <= -1.467\ngini = 0.044\nsamples = 89\nvalue = [87, 2]\nclass = Unsafe", fillcolor="#e6843e"] ;
203 -> 204 ;
205 [label="cadmium <= -1.043\ngini = 0.444\nsamples = 3\nvalue = [2, 1]\nclass = Unsafe", fillcolor="#f2c09c"] ;
204 -> 205 ;
206 [label="gini = 0.0\nsamples = 2\nvalue = [2, 0]\nclass = Unsafe", fillcolor="#e58139"] ;
205 -> 206 ;
207 [label="gini = 0.0\nsamples = 1\nvalue = [0, 1]\nclass = Safe", fillcolor="#399de5"] ;
205 -> 207 ;
208 [label="cadmium <= -0.974\ngini = 0.023\nsamples = 86\nvalue = [85, 1]\nclass = Unsafe", fillcolor="#e5823b"] ;
204 -> 208 ;
209 [label="gini = 0.0\nsamples = 76\nvalue = [76, 0]\nclass = Unsafe", fillcolor="#e58139"] ;
208 -> 209 ;
210 [label="arsenic <= -0.498\ngini = 0.18\nsamples = 10\nvalue = [9, 1]\nclass = Unsafe", fillcolor="#e88f4f"] ;
208 -> 210 ;
211 [label="gini = 0.0\nsamples = 8\nvalue = [8, 0]\nclass = Unsafe", fillcolor="#e58139"] ;
210 -> 211 ;
212 [label="aluminium <= -0.345\ngini = 0.5\nsamples = 2\nvalue = [1, 1]\nclass = Unsafe", fillcolor="#ffffff"] ;
210 -> 212 ;
213 [label="gini = 0.0\nsamples = 1\nvalue = [1, 0]\nclass = Unsafe", fillcolor="#e58139"] ;
212 -> 213 ;
214 [label="gini = 0.0\nsamples = 1\nvalue = [0, 1]\nclass = Safe", fillcolor="#399de5"] ;
212 -> 214 ;
215 [label="aluminium <= -0.353\ngini = 0.5\nsamples = 2\nvalue = [1, 1]\nclass = Unsafe", fillcolor="#ffffff"] ;
203 -> 215 ;
216 [label="gini = 0.0\nsamples = 1\nvalue = [0, 1]\nclass = Safe", fillcolor="#399de5"] ;
215 -> 216 ;
217 [label="gini = 0.0\nsamples = 1\nvalue = [1, 0]\nclass = Unsafe", fillcolor="#e58139"] ;
215 -> 217 ;
218 [label="silver <= 0.122\ngini = 0.258\nsamples = 46\nvalue = [39, 7]\nclass = Unsafe", fillcolor="#ea985d"] ;
200 -> 218 ;
219 [label="chloramine <= 1.3\ngini = 0.486\nsamples = 12\nvalue = [7, 5]\nclass = Unsafe", fillcolor="#f8dbc6"] ;
218 -> 219 ;
220 [label="cadmium <= -1.113\ngini = 0.42\nsamples = 10\nvalue = [7, 3]\nclass = Unsafe", fillcolor="#f0b78e"] ;
219 -> 220 ;
221 [label="aluminium <= -0.349\ngini = 0.444\nsamples = 3\nvalue = [1, 2]\nclass = Safe", fillcolor="#9ccef2"] ;
220 -> 221 ;
222 [label="gini = 0.0\nsamples = 1\nvalue = [1, 0]\nclass = Unsafe", fillcolor="#e58139"] ;
221 -> 222 ;
223 [label="gini = 0.0\nsamples = 2\nvalue = [0, 2]\nclass = Safe", fillcolor="#399de5"] ;
221 -> 223 ;
224 [label="barium <= 1.302\ngini = 0.245\nsamples = 7\nvalue = [6, 1]\nclass = Unsafe", fillcolor="#e9965a"] ;
220 -> 224 ;
225 [label="gini = 0.0\nsamples = 5\nvalue = [5, 0]\nclass = Unsafe", fillcolor="#e58139"] ;
224 -> 225 ;
226 [label="aluminium <= -0.325\ngini = 0.5\nsamples = 2\nvalue = [1, 1]\nclass = Unsafe", fillcolor="#ffffff"] ;
224 -> 226 ;
227 [label="gini = 0.0\nsamples = 1\nvalue = [0, 1]\nclass = Safe", fillcolor="#399de5"] ;
226 -> 227 ;
228 [label="gini = 0.0\nsamples = 1\nvalue = [1, 0]\nclass = Unsafe", fillcolor="#e58139"] ;
226 -> 228 ;
229 [label="gini = 0.0\nsamples = 2\nvalue = [0, 2]\nclass = Safe", fillcolor="#399de5"] ;
219 -> 229 ;
230 [label="viruses <= -0.869\ngini = 0.111\nsamples = 34\nvalue = [32, 2]\nclass = Unsafe", fillcolor="#e78945"] ;
218 -> 230 ;
231 [label="uranium <= -0.921\ngini = 0.5\nsamples = 2\nvalue = [1, 1]\nclass = Unsafe", fillcolor="#ffffff"] ;
230 -> 231 ;
232 [label="gini = 0.0\nsamples = 1\nvalue = [0, 1]\nclass = Safe", fillcolor="#399de5"] ;
231 -> 232 ;
233 [label="gini = 0.0\nsamples = 1\nvalue = [1, 0]\nclass = Unsafe", fillcolor="#e58139"] ;
231 -> 233 ;
234 [label="ammonia <= -1.524\ngini = 0.061\nsamples = 32\nvalue = [31, 1]\nclass = Unsafe", fillcolor="#e6853f"] ;
230 -> 234 ;
235 [label="silver <= 1.308\ngini = 0.444\nsamples = 3\nvalue = [2, 1]\nclass = Unsafe", fillcolor="#f2c09c"] ;
234 -> 235 ;
236 [label="gini = 0.0\nsamples = 2\nvalue = [2, 0]\nclass = Unsafe", fillcolor="#e58139"] ;
235 -> 236 ;
237 [label="gini = 0.0\nsamples = 1\nvalue = [0, 1]\nclass = Safe", fillcolor="#399de5"] ;
235 -> 237 ;
238 [label="gini = 0.0\nsamples = 29\nvalue = [29, 0]\nclass = Unsafe", fillcolor="#e58139"] ;
234 -> 238 ;
239 [label="gini = 0.0\nsamples = 170\nvalue = [170, 0]\nclass = Unsafe", fillcolor="#e58139"] ;
183 -> 239 ;
240 [label="cadmium <= -0.918\ngini = 0.449\nsamples = 1465\nvalue = [966, 499]\nclass = Unsafe", fillcolor="#f2c29f"] ;
0 -> 240 [labeldistance=2.5, labelangle=-45, headlabel="False"] ;
241 [label="perchlorate <= 1.044\ngini = 0.469\nsamples = 741\nvalue = [278, 463]\nclass = Safe", fillcolor="#b0d8f5"] ;
240 -> 241 ;
242 [label="perchlorate <= 0.385\ngini = 0.208\nsamples = 440\nvalue = [52, 388]\nclass = Safe", fillcolor="#54aae8"] ;
241 -> 242 ;
243 [label="arsenic <= -0.024\ngini = 0.082\nsamples = 280\nvalue = [12, 268]\nclass = Safe", fillcolor="#42a1e6"] ;
242 -> 243 ;
244 [label="aluminium <= -0.203\ngini = 0.056\nsamples = 276\nvalue = [8, 268]\nclass = Safe", fillcolor="#3fa0e6"] ;
243 -> 244 ;
245 [label="gini = 0.0\nsamples = 3\nvalue = [3, 0]\nclass = Unsafe", fillcolor="#e58139"] ;
244 -> 245 ;
246 [label="ammonia <= 1.744\ngini = 0.036\nsamples = 273\nvalue = [5, 268]\nclass = Safe", fillcolor="#3d9fe5"] ;
244 -> 246 ;
247 [label="barium <= -1.279\ngini = 0.029\nsamples = 272\nvalue = [4, 268]\nclass = Safe", fillcolor="#3c9ee5"] ;
246 -> 247 ;
248 [label="gini = 0.0\nsamples = 1\nvalue = [1, 0]\nclass = Unsafe", fillcolor="#e58139"] ;
247 -> 248 ;
249 [label="aluminium <= 3.375\ngini = 0.022\nsamples = 271\nvalue = [3, 268]\nclass = Safe", fillcolor="#3b9ee5"] ;
247 -> 249 ;
250 [label="ammonia <= 1.603\ngini = 0.015\nsamples = 267\nvalue = [2, 265]\nclass = Safe", fillcolor="#3a9ee5"] ;
249 -> 250 ;
251 [label="gini = 0.0\nsamples = 247\nvalue = [0, 247]\nclass = Safe", fillcolor="#399de5"] ;
250 -> 251 ;
252 [label="radium <= 1.828\ngini = 0.18\nsamples = 20\nvalue = [2, 18]\nclass = Safe", fillcolor="#4fa8e8"] ;
250 -> 252 ;
253 [label="gini = 0.0\nsamples = 17\nvalue = [0, 17]\nclass = Safe", fillcolor="#399de5"] ;
252 -> 253 ;
254 [label="chloramine <= 1.121\ngini = 0.444\nsamples = 3\nvalue = [2, 1]\nclass = Unsafe", fillcolor="#f2c09c"] ;
252 -> 254 ;
255 [label="gini = 0.0\nsamples = 1\nvalue = [0, 1]\nclass = Safe", fillcolor="#399de5"] ;
254 -> 255 ;
256 [label="gini = 0.0\nsamples = 2\nvalue = [2, 0]\nclass = Unsafe", fillcolor="#e58139"] ;
254 -> 256 ;
257 [label="mercury <= 0.114\ngini = 0.375\nsamples = 4\nvalue = [1, 3]\nclass = Safe", fillcolor="#7bbeee"] ;
249 -> 257 ;
258 [label="gini = 0.0\nsamples = 1\nvalue = [1, 0]\nclass = Unsafe", fillcolor="#e58139"] ;
257 -> 258 ;
259 [label="gini = 0.0\nsamples = 3\nvalue = [0, 3]\nclass = Safe", fillcolor="#399de5"] ;
257 -> 259 ;
260 [label="gini = 0.0\nsamples = 1\nvalue = [1, 0]\nclass = Unsafe", fillcolor="#e58139"] ;
246 -> 260 ;
261 [label="gini = 0.0\nsamples = 4\nvalue = [4, 0]\nclass = Unsafe", fillcolor="#e58139"] ;
243 -> 261 ;
262 [label="ammonia <= 0.383\ngini = 0.375\nsamples = 160\nvalue = [40, 120]\nclass = Safe", fillcolor="#7bbeee"] ;
242 -> 262 ;
263 [label="aluminium <= 3.193\ngini = 0.12\nsamples = 94\nvalue = [6.0, 88.0]\nclass = Safe", fillcolor="#46a4e7"] ;
262 -> 263 ;
264 [label="barium <= 1.706\ngini = 0.066\nsamples = 88\nvalue = [3, 85]\nclass = Safe", fillcolor="#40a0e6"] ;
263 -> 264 ;
265 [label="aluminium <= -0.159\ngini = 0.024\nsamples = 82\nvalue = [1, 81]\nclass = Safe", fillcolor="#3b9ee5"] ;
264 -> 265 ;
266 [label="gini = 0.0\nsamples = 1\nvalue = [1, 0]\nclass = Unsafe", fillcolor="#e58139"] ;
265 -> 266 ;
267 [label="gini = 0.0\nsamples = 81\nvalue = [0, 81]\nclass = Safe", fillcolor="#399de5"] ;
265 -> 267 ;
268 [label="nitrates <= 0.718\ngini = 0.444\nsamples = 6\nvalue = [2, 4]\nclass = Safe", fillcolor="#9ccef2"] ;
264 -> 268 ;
269 [label="gini = 0.0\nsamples = 4\nvalue = [0, 4]\nclass = Safe", fillcolor="#399de5"] ;
268 -> 269 ;
270 [label="gini = 0.0\nsamples = 2\nvalue = [2, 0]\nclass = Unsafe", fillcolor="#e58139"] ;
268 -> 270 ;
271 [label="chromium <= 1.328\ngini = 0.5\nsamples = 6\nvalue = [3, 3]\nclass = Unsafe", fillcolor="#ffffff"] ;
263 -> 271 ;
272 [label="gini = 0.0\nsamples = 3\nvalue = [0, 3]\nclass = Safe", fillcolor="#399de5"] ;
271 -> 272 ;
273 [label="gini = 0.0\nsamples = 3\nvalue = [3, 0]\nclass = Unsafe", fillcolor="#e58139"] ;
271 -> 273 ;
274 [label="nitrates <= -0.956\ngini = 0.5\nsamples = 66\nvalue = [34, 32]\nclass = Unsafe", fillcolor="#fdf8f3"] ;
262 -> 274 ;
275 [label="gini = 0.0\nsamples = 18\nvalue = [0, 18]\nclass = Safe", fillcolor="#399de5"] ;
274 -> 275 ;
276 [label="aluminium <= 0.826\ngini = 0.413\nsamples = 48\nvalue = [34, 14]\nclass = Unsafe", fillcolor="#f0b58b"] ;
274 -> 276 ;
277 [label="copper <= 1.045\ngini = 0.397\nsamples = 11\nvalue = [3, 8]\nclass = Safe", fillcolor="#83c2ef"] ;
276 -> 277 ;
278 [label="gini = 0.0\nsamples = 7\nvalue = [0, 7]\nclass = Safe", fillcolor="#399de5"] ;
277 -> 278 ;
279 [label="arsenic <= -0.595\ngini = 0.375\nsamples = 4\nvalue = [3, 1]\nclass = Unsafe", fillcolor="#eeab7b"] ;
277 -> 279 ;
280 [label="gini = 0.0\nsamples = 1\nvalue = [0, 1]\nclass = Safe", fillcolor="#399de5"] ;
279 -> 280 ;
281 [label="gini = 0.0\nsamples = 3\nvalue = [3, 0]\nclass = Unsafe", fillcolor="#e58139"] ;
279 -> 281 ;
282 [label="flouride <= -1.093\ngini = 0.272\nsamples = 37\nvalue = [31, 6]\nclass = Unsafe", fillcolor="#ea995f"] ;
276 -> 282 ;
283 [label="chromium <= -0.092\ngini = 0.375\nsamples = 4\nvalue = [1, 3]\nclass = Safe", fillcolor="#7bbeee"] ;
282 -> 283 ;
284 [label="gini = 0.0\nsamples = 1\nvalue = [1, 0]\nclass = Unsafe", fillcolor="#e58139"] ;
283 -> 284 ;
285 [label="gini = 0.0\nsamples = 3\nvalue = [0, 3]\nclass = Safe", fillcolor="#399de5"] ;
283 -> 285 ;
286 [label="barium <= -1.147\ngini = 0.165\nsamples = 33\nvalue = [30, 3]\nclass = Unsafe", fillcolor="#e88e4d"] ;
282 -> 286 ;
287 [label="gini = 0.0\nsamples = 1\nvalue = [0, 1]\nclass = Safe", fillcolor="#399de5"] ;
286 -> 287 ;
288 [label="arsenic <= -0.498\ngini = 0.117\nsamples = 32\nvalue = [30, 2]\nclass = Unsafe", fillcolor="#e78946"] ;
286 -> 288 ;
289 [label="gini = 0.0\nsamples = 25\nvalue = [25, 0]\nclass = Unsafe", fillcolor="#e58139"] ;
288 -> 289 ;
290 [label="nitrates <= -0.246\ngini = 0.408\nsamples = 7\nvalue = [5, 2]\nclass = Unsafe", fillcolor="#efb388"] ;
288 -> 290 ;
291 [label="gini = 0.0\nsamples = 2\nvalue = [0, 2]\nclass = Safe", fillcolor="#399de5"] ;
290 -> 291 ;
292 [label="gini = 0.0\nsamples = 5\nvalue = [5, 0]\nclass = Unsafe", fillcolor="#e58139"] ;
290 -> 292 ;
293 [label="ammonia <= -0.394\ngini = 0.374\nsamples = 301\nvalue = [226, 75]\nclass = Unsafe", fillcolor="#eeab7b"] ;
241 -> 293 ;
294 [label="perchlorate <= 1.795\ngini = 0.478\nsamples = 106\nvalue = [42, 64]\nclass = Safe", fillcolor="#bbddf6"] ;
293 -> 294 ;
295 [label="nitrates <= 0.222\ngini = 0.271\nsamples = 62\nvalue = [10, 52]\nclass = Safe", fillcolor="#5fb0ea"] ;
294 -> 295 ;
296 [label="ammonia <= -0.459\ngini = 0.05\nsamples = 39\nvalue = [1, 38]\nclass = Safe", fillcolor="#3ea0e6"] ;
295 -> 296 ;
297 [label="gini = 0.0\nsamples = 36\nvalue = [0, 36]\nclass = Safe", fillcolor="#399de5"] ;
296 -> 297 ;
298 [label="lead <= -0.669\ngini = 0.444\nsamples = 3\nvalue = [1, 2]\nclass = Safe", fillcolor="#9ccef2"] ;
296 -> 298 ;
299 [label="gini = 0.0\nsamples = 2\nvalue = [0, 2]\nclass = Safe", fillcolor="#399de5"] ;
298 -> 299 ;
300 [label="gini = 0.0\nsamples = 1\nvalue = [1, 0]\nclass = Unsafe", fillcolor="#e58139"] ;
298 -> 300 ;
301 [label="perchlorate <= 1.442\ngini = 0.476\nsamples = 23\nvalue = [9, 14]\nclass = Safe", fillcolor="#b8dcf6"] ;
295 -> 301 ;
302 [label="radium <= 1.757\ngini = 0.153\nsamples = 12\nvalue = [1, 11]\nclass = Safe", fillcolor="#4ba6e7"] ;
301 -> 302 ;
303 [label="gini = 0.0\nsamples = 11\nvalue = [0, 11]\nclass = Safe", fillcolor="#399de5"] ;
302 -> 303 ;
304 [label="gini = 0.0\nsamples = 1\nvalue = [1, 0]\nclass = Unsafe", fillcolor="#e58139"] ;
302 -> 304 ;
305 [label="ammonia <= -1.374\ngini = 0.397\nsamples = 11\nvalue = [8, 3]\nclass = Unsafe", fillcolor="#efb083"] ;
301 -> 305 ;
306 [label="gini = 0.0\nsamples = 3\nvalue = [0, 3]\nclass = Safe", fillcolor="#399de5"] ;
305 -> 306 ;
307 [label="gini = 0.0\nsamples = 8\nvalue = [8, 0]\nclass = Unsafe", fillcolor="#e58139"] ;
305 -> 307 ;
308 [label="nitrates <= -0.45\ngini = 0.397\nsamples = 44\nvalue = [32, 12]\nclass = Unsafe", fillcolor="#efb083"] ;
294 -> 308 ;
309 [label="flouride <= -1.358\ngini = 0.415\nsamples = 17\nvalue = [5, 12]\nclass = Safe", fillcolor="#8bc6f0"] ;
308 -> 309 ;
310 [label="gini = 0.0\nsamples = 2\nvalue = [2, 0]\nclass = Unsafe", fillcolor="#e58139"] ;
309 -> 310 ;
311 [label="chloramine <= 1.645\ngini = 0.32\nsamples = 15\nvalue = [3, 12]\nclass = Safe", fillcolor="#6ab6ec"] ;
309 -> 311 ;
312 [label="gini = 0.0\nsamples = 10\nvalue = [0, 10]\nclass = Safe", fillcolor="#399de5"] ;
311 -> 312 ;
313 [label="cadmium <= -0.988\ngini = 0.48\nsamples = 5\nvalue = [3, 2]\nclass = Unsafe", fillcolor="#f6d5bd"] ;
311 -> 313 ;
314 [label="gini = 0.0\nsamples = 3\nvalue = [3, 0]\nclass = Unsafe", fillcolor="#e58139"] ;
313 -> 314 ;
315 [label="gini = 0.0\nsamples = 2\nvalue = [0, 2]\nclass = Safe", fillcolor="#399de5"] ;
313 -> 315 ;
316 [label="gini = 0.0\nsamples = 27\nvalue = [27, 0]\nclass = Unsafe", fillcolor="#e58139"] ;
308 -> 316 ;
317 [label="chloramine <= -0.104\ngini = 0.106\nsamples = 195\nvalue = [184, 11]\nclass = Unsafe", fillcolor="#e78945"] ;
293 -> 317 ;
318 [label="perchlorate <= 1.35\ngini = 0.353\nsamples = 35\nvalue = [27, 8]\nclass = Unsafe", fillcolor="#eda674"] ;
317 -> 318 ;
319 [label="nitrates <= 0.281\ngini = 0.463\nsamples = 11\nvalue = [4, 7]\nclass = Safe", fillcolor="#aad5f4"] ;
318 -> 319 ;
320 [label="gini = 0.0\nsamples = 6\nvalue = [0, 6]\nclass = Safe", fillcolor="#399de5"] ;
319 -> 320 ;
321 [label="lead <= 0.967\ngini = 0.32\nsamples = 5\nvalue = [4, 1]\nclass = Unsafe", fillcolor="#eca06a"] ;
319 -> 321 ;
322 [label="gini = 0.0\nsamples = 4\nvalue = [4, 0]\nclass = Unsafe", fillcolor="#e58139"] ;
321 -> 322 ;
323 [label="gini = 0.0\nsamples = 1\nvalue = [0, 1]\nclass = Safe", fillcolor="#399de5"] ;
321 -> 323 ;
324 [label="flouride <= -1.496\ngini = 0.08\nsamples = 24\nvalue = [23, 1]\nclass = Unsafe", fillcolor="#e68642"] ;
318 -> 324 ;
325 [label="aluminium <= 1.44\ngini = 0.444\nsamples = 3\nvalue = [2, 1]\nclass = Unsafe", fillcolor="#f2c09c"] ;
324 -> 325 ;
326 [label="gini = 0.0\nsamples = 2\nvalue = [2, 0]\nclass = Unsafe", fillcolor="#e58139"] ;
325 -> 326 ;
327 [label="gini = 0.0\nsamples = 1\nvalue = [0, 1]\nclass = Safe", fillcolor="#399de5"] ;
325 -> 327 ;
328 [label="gini = 0.0\nsamples = 21\nvalue = [21, 0]\nclass = Unsafe", fillcolor="#e58139"] ;
324 -> 328 ;
329 [label="barium <= -1.246\ngini = 0.037\nsamples = 160\nvalue = [157, 3]\nclass = Unsafe", fillcolor="#e5833d"] ;
317 -> 329 ;
330 [label="gini = 0.0\nsamples = 1\nvalue = [0, 1]\nclass = Safe", fillcolor="#399de5"] ;
329 -> 330 ;
331 [label="barium <= -0.908\ngini = 0.025\nsamples = 159\nvalue = [157, 2]\nclass = Unsafe", fillcolor="#e5833c"] ;
329 -> 331 ;
332 [label="radium <= -0.827\ngini = 0.231\nsamples = 15\nvalue = [13, 2]\nclass = Unsafe", fillcolor="#e99457"] ;
331 -> 332 ;
333 [label="gini = 0.0\nsamples = 1\nvalue = [0, 1]\nclass = Safe", fillcolor="#399de5"] ;
332 -> 333 ;
334 [label="lead <= 1.655\ngini = 0.133\nsamples = 14\nvalue = [13, 1]\nclass = Unsafe", fillcolor="#e78b48"] ;
332 -> 334 ;
335 [label="gini = 0.0\nsamples = 13\nvalue = [13, 0]\nclass = Unsafe", fillcolor="#e58139"] ;
334 -> 335 ;
336 [label="gini = 0.0\nsamples = 1\nvalue = [0, 1]\nclass = Safe", fillcolor="#399de5"] ;
334 -> 336 ;
337 [label="gini = 0.0\nsamples = 144\nvalue = [144, 0]\nclass = Unsafe", fillcolor="#e58139"] ;
331 -> 337 ;
338 [label="silver <= -0.297\ngini = 0.095\nsamples = 724\nvalue = [688, 36]\nclass = Unsafe", fillcolor="#e68843"] ;
240 -> 338 ;
339 [label="uranium <= -0.736\ngini = 0.352\nsamples = 158\nvalue = [122, 36]\nclass = Unsafe", fillcolor="#eda673"] ;
338 -> 339 ;
340 [label="radium <= 0.915\ngini = 0.405\nsamples = 46\nvalue = [13.0, 33.0]\nclass = Safe", fillcolor="#87c4ef"] ;
339 -> 340 ;
341 [label="selenium <= 1.226\ngini = 0.229\nsamples = 38\nvalue = [5, 33]\nclass = Safe", fillcolor="#57ace9"] ;
340 -> 341 ;
342 [label="perchlorate <= 2.247\ngini = 0.057\nsamples = 34\nvalue = [1, 33]\nclass = Safe", fillcolor="#3fa0e6"] ;
341 -> 342 ;
343 [label="gini = 0.0\nsamples = 33\nvalue = [0, 33]\nclass = Safe", fillcolor="#399de5"] ;
342 -> 343 ;
344 [label="gini = 0.0\nsamples = 1\nvalue = [1, 0]\nclass = Unsafe", fillcolor="#e58139"] ;
342 -> 344 ;
345 [label="gini = 0.0\nsamples = 4\nvalue = [4, 0]\nclass = Unsafe", fillcolor="#e58139"] ;
341 -> 345 ;
346 [label="gini = 0.0\nsamples = 8\nvalue = [8, 0]\nclass = Unsafe", fillcolor="#e58139"] ;
340 -> 346 ;
347 [label="viruses <= 1.694\ngini = 0.052\nsamples = 112\nvalue = [109, 3]\nclass = Unsafe", fillcolor="#e6843e"] ;
339 -> 347 ;
348 [label="arsenic <= 3.415\ngini = 0.035\nsamples = 111\nvalue = [109, 2]\nclass = Unsafe", fillcolor="#e5833d"] ;
347 -> 348 ;
349 [label="nitrites <= 1.529\ngini = 0.018\nsamples = 109\nvalue = [108, 1]\nclass = Unsafe", fillcolor="#e5823b"] ;
348 -> 349 ;
350 [label="gini = 0.0\nsamples = 104\nvalue = [104, 0]\nclass = Unsafe", fillcolor="#e58139"] ;
349 -> 350 ;
351 [label="ammonia <= -1.377\ngini = 0.32\nsamples = 5\nvalue = [4, 1]\nclass = Unsafe", fillcolor="#eca06a"] ;
349 -> 351 ;
352 [label="gini = 0.0\nsamples = 1\nvalue = [0, 1]\nclass = Safe", fillcolor="#399de5"] ;
351 -> 352 ;
353 [label="gini = 0.0\nsamples = 4\nvalue = [4, 0]\nclass = Unsafe", fillcolor="#e58139"] ;
351 -> 353 ;
354 [label="cadmium <= 0.345\ngini = 0.5\nsamples = 2\nvalue = [1, 1]\nclass = Unsafe", fillcolor="#ffffff"] ;
348 -> 354 ;
355 [label="gini = 0.0\nsamples = 1\nvalue = [1, 0]\nclass = Unsafe", fillcolor="#e58139"] ;
354 -> 355 ;
356 [label="gini = 0.0\nsamples = 1\nvalue = [0, 1]\nclass = Safe", fillcolor="#399de5"] ;
354 -> 356 ;
357 [label="gini = 0.0\nsamples = 1\nvalue = [0, 1]\nclass = Safe", fillcolor="#399de5"] ;
347 -> 357 ;
358 [label="gini = 0.0\nsamples = 566\nvalue = [566, 0]\nclass = Unsafe", fillcolor="#e58139"] ;
338 -> 358 ;
}